digraph Tree {
node [shape=box] ;
0 [label="X[2] <= 0.5\nentropy = 0.94\nsamples = 14\nvalue = [5, 9]"] ;
1 [label="X[0] <= 1.5\nentropy = 0.985\nsamples = 7\nvalue = [4, 3]"] ;
0 -> 1 [labeldistance=2.5, labelangle=45, headlabel="True"] ;
2 [label="entropy = 0.0\nsamples = 3\nvalue = [3, 0]"] ;
1 -> 2 ;
3 [label="X[3] <= 1.5\nentropy = 0.811\nsamples = 4\nvalue = [1, 3]"] ;
1 -> 3 ;
4 [label="entropy = 0.0\nsamples = 2\nvalue = [0, 2]"] ;
3 -> 4 ;
5 [label="X[0] <= 2.5\nentropy = 1.0\nsamples = 2\nvalue = [1, 1]"] ;
3 -> 5 ;
6 [label="entropy = 0.0\nsamples = 1\nvalue = [0, 1]"] ;
5 -> 6 ;
7 [label="entropy = 0.0\nsamples = 1\nvalue = [1, 0]"] ;
5 -> 7 ;
8 [label="X[3] <= 1.5\nentropy = 0.592\nsamples = 7\nvalue = [1, 6]"] ;
0 -> 8 [labeldistance=2.5, labelangle=-45, headlabel="False"] ;
9 [label="entropy = 0.0\nsamples = 4\nvalue = [0, 4]"] ;
8 -> 9 ;
10 [label="X[0] <= 2.5\nentropy = 0.918\nsamples = 3\nvalue = [1, 2]"] ;
8 -> 10 ;
11 [label="entropy = 0.0\nsamples = 2\nvalue = [0, 2]"] ;
10 -> 11 ;
12 [label="entropy = 0.0\nsamples = 1\nvalue = [1, 0]"] ;
10 -> 12 ;
}